tree
version=v3
num_class=1
num_tree_per_iteration=1
label_index=0
max_feature_idx=29
objective=regression
feature_names=Column_0 Column_1 Column_2 Column_3 Column_4 Column_5 Column_6 Column_7 Column_8 Column_9 Column_10 Column_11 Column_12 Column_13 Column_14 Column_15 Column_16 Column_17 Column_18 Column_19 Column_20 Column_21 Column_22 Column_23 Column_24 Column_25 Column_26 Column_27 Column_28 Column_29
feature_infos=[7.6909999999999998:28.109999999999999] [9.7100000000000009:39.280000000000001] [0.062509999999999996:0.16339999999999999] [0.019380000000000001:0.31140000000000001] [0:0.42680000000000001] [0:0.20119999999999999] [0.1167:0.30399999999999999] [0.049959999999999997:0.097439999999999999] [0.1115:2.8730000000000002] [0.36020000000000002:3.6469999999999998] [0.75700000000000001:21.98] [6.8019999999999996:542.20000000000005] [0.0026670000000000001:0.031130000000000001] [0.0022520000000000001:0.13539999999999999] [0:0.39600000000000002] [0:0.052789999999999997] [0.0078820000000000001:0.061460000000000001] [0.00089479999999999996:0.029839999999999998] [12.02:49.539999999999999] [0.081250000000000003:0.21840000000000001] [0.034320000000000003:0.93789999999999996] [0:0.90339999999999998] [0:0.27560000000000001] [0.1565:0.66379999999999995] [0.055039999999999999:0.17299999999999999] [0.14210526315789473:0.15968772178850249] [0.09406779661016948:0.1568976344986393] [0.0064456981664315939:0.035805914202415662] [0.01096361455417833:0.045134976525821595] [0.62925170068027203:1]
tree_sizes=721 1175 1351 1350 1441 1255 1340 1343 1349 1260 1353 1346 1347 1269 1358 1277 1264 1269 1358 1266

Tree=0
num_leaves=7
num_cat=0
split_feature=5 27 27 9 18 4
split_gain=54.6427 4.60098 1.98861 0.155023 0.0435484 0.0401961
threshold=0.051280000000000006 0.017972021108230398 0.017831742121814376 1.9760000000000002 28.970000000000002 0.11185000000000002
decision_type=2 2 2 2 2 2
left_child=2 5 -1 4 -4 -2
right_child=1 -3 3 -5 -6 -7
leaf_value=0.37315326595239007 0.40315326505832039 0.37946278957387541 0.3556532664739307 0.36065326632491906 0.35815326639942491 0.4056532649838146
leaf_weight=20 20 21 135 20 20 82
leaf_count=20 20 21 135 20 20 82
internal_value=0.374372 0.400775 0.358217 0.35651 0.355976 0.405163
internal_weight=0 123 195 175 155 102
internal_count=318 123 195 175 155 102
is_linear=0
shrinkage=1


Tree=1
num_leaves=12
num_cat=0
split_feature=22 11 18 29 23 5 0 11 9 4 12
split_gain=49.5568 4.52304 0.873664 0.829437 0.0476416 0.0029545 0.000787904 0.000232164 8.34255e-05 1.65511e-05 1.53489e-05
threshold=0.14235000000000003 35.185000000000009 31.575000000000003 0.88230550284629994 0.32190000000000002 0.041060000000000006 14.770000000000001 27.145000000000007 1.5345000000000002 0.13510000000000003 0.0044535000000000009
decision_type=2 2 2 2 2 2 2 2 2 2 2
left_child=1 2 4 6 5 7 -2 8 10 -8 -1
right_child=3 -3 -4 -5 -6 -7 9 -9 -10 -11 -12
leaf_value=-0.017832662835717199 0.030091742575168612 0.008648289367556572 -0.0072231393145478287 0.018949480625716122 -0.015332662835717201 -0.018499329611659048 0.029770909462656293 -0.018001413121819496 -0.017907663360238076 0.029717338085174561 -0.017782662808895112
leaf_weight=20 20 20 23 22 20 20 21 20 20 46 66
leaf_count=20 20 20 23 22 20 20 21 20 20 46 66
internal_value=0 -0.0139631 -0.0163559 0.027623 -0.0176213 -0.0179348 0.0298163 -0.0178452 -0.0178157 0.0297341 -0.0177943
internal_weight=0 209 189 109 166 146 87 126 106 67 86
internal_count=318 209 189 109 166 146 87 126 106 67 86
is_linear=0
shrinkage=0.05


Tree=2
num_leaves=14
num_cat=0
split_feature=22 28 27 18 23 11 17 29 4 23 9 21 19
split_gain=44.725 4.3926 0.789236 0.410131 0.0390589 0.00246996 0.000436979 0.000283817 0.000100163 2.78233e-05 1.19501e-05 3.93405e-07 6.5484e-08
threshold=0.14235000000000003 0.021969012602819773 0.017173440764694823 29.795000000000005 0.21875000000000003 27.710000000000004 0.0046990000000000009 0.85915596604240452 0.13060000000000002 0.30585000000000007 1.2890000000000004 0.10485000000000001 0.15195000000000003
decision_type=2 2 2 2 2 2 2 2 2 2 2 2 2
left_child=1 -1 7 4 -3 6 9 8 -2 10 11 -6 -10
right_child=2 3 -4 -5 5 -7 -8 -9 12 -11 -12 -13 -14
leaf_value=0.0073484411706095159 0.028359322385354477 -0.014693517312407495 0.017532402347950709 -0.0099895969606362857 -0.016899029836058618 -0.017529362180958626 -0.017175375521183017 0.028485844582319259 0.028231262931456936 -0.016971238851547242 -0.016938300952315331 -0.016890325981217463 0.028227457404136659
leaf_weight=23 22 20 21 26 20 23 20 20 26 20 20 37 20
leaf_count=23 22 20 21 26 20 23 20 20 26 20 20 37 20
internal_value=0 -0.013265 0.0262419 -0.015814 -0.0167604 -0.0170557 -0.0169626 0.0283203 0.0282716 -0.0169187 -0.016905 -0.0168934 0.0282296
internal_weight=0 209 109 186 160 140 117 88 68 97 77 57 46
internal_count=318 209 109 186 160 140 117 88 68 97 77 57 46
is_linear=0
shrinkage=0.05


Tree=3
num_leaves=14
num_cat=0
split_feature=5 27 27 10 29 9 18 29 5 9 29 23 12
split_gain=40.8537 3.4091 1.53051 0.132698 0.0432616 0.0407148 0.00363924 0.0029841 0.000466741 0.000185596 4.42515e-05 6.16814e-06 4.88212e-06
threshold=0.051280000000000006 0.017972021108230398 0.017831742121814376 2.8175000000000003 0.88496211612116549 0.87395000000000012 26.145000000000003 0.86504096982801248 0.083465000000000011 0.66650000000000009 0.93148798689706658 0.28485000000000005 0.0063815000000000009
decision_type=2 2 2 2 2 2 2 2 2 2 2 2 2
left_child=2 5 -1 4 -4 -2 9 8 -7 -6 11 -11 -10
right_child=1 -3 3 -5 6 7 -8 -9 12 10 -12 -13 -14
leaf_value=-0.00086738310754299166 0.024582200869917872 0.0044825003260657902 -0.013792364373803141 -0.011635067537426949 -0.016256363902773178 0.027125771343708041 -0.016706613310285518 0.027629349380731583 0.026850180029869081 -0.016050453800143621 -0.016146751007308131 -0.016085117700554076 0.026816047186201272
leaf_weight=20 20 21 20 20 21 20 37 20 20 33 23 21 22
leaf_count=20 20 21 20 20 21 20 37 20 20 33 23 21 22
internal_value=0 0.0228279 -0.0139705 -0.015468 -0.0159626 0.0266049 -0.0162841 0.0270983 0.026927 -0.0161246 -0.0160887 -0.0160639 0.0268323
internal_weight=0 123 195 175 155 102 135 82 62 98 77 54 42
internal_count=318 123 195 175 155 102 135 82 62 98 77 54 42
is_linear=0
shrinkage=0.05


Tree=4
num_leaves=15
num_cat=0
split_feature=5 27 27 23 14 29 18 29 5 25 9 16 29 27
split_gain=36.8705 3.07672 1.38129 0.130475 0.0380852 0.0358761 0.00442888 0.00289503 0.000962781 0.000424159 0.000156392 5.41311e-05 1.07158e-05 3.55894e-06
threshold=0.051280000000000006 0.017972021108230398 0.017831742121814376 0.21875000000000003 0.026935000000000004 0.88158723458427979 26.145000000000003 0.87414826288228509 0.019345000000000005 0.15237051520811271 0.67675000000000007 0.025685000000000003 0.81275761875094898 0.023100211900732477
decision_type=2 2 2 2 2 2 2 2 2 2 2 2 2 2
left_child=2 4 -1 -4 -2 -5 10 9 -8 12 -7 13 -6 -12
right_child=1 -3 3 5 7 6 8 -9 -10 -11 11 -13 -14 -15
leaf_value=-0.00082401379942893989 0.023377190814131782 0.004258375366528829 -0.010997490017187028 -0.013329441303556617 0.02547843683333624 -0.015443056449294092 -0.015704265013337135 0.026288669407367706 -0.016194872111082077 0.02578424423933029 -0.015247780084609986 -0.015354913994669914 0.025529575496912007 -0.015274667069315913
leaf_weight=20 21 21 21 22 21 20 20 20 20 20 32 20 20 20
leaf_count=20 21 21 21 22 21 20 20 20 20 20 32 20 20 20
internal_value=0 0.0216865 -0.013272 -0.0146946 0.0252747 -0.0151988 -0.0155103 0.0257666 -0.0159496 0.0255955 -0.0153194 -0.015285 0.0255034 -0.0152581
internal_weight=0 123 195 175 102 154 132 81 40 61 92 72 41 52
internal_count=318 123 195 175 102 154 132 81 40 61 92 72 41 52
is_linear=0
shrinkage=0.05


Tree=5
num_leaves=13
num_cat=0
split_feature=5 18 22 29 26 11 0 1 10 26 14 16
split_gain=31.7728 2.91843 4.23823 1.28111 0.0508582 0.0368225 0.0102406 0.00459201 0.000771159 0.000733425 8.90318e-05 1.39839e-05
threshold=0.051280000000000006 25.540000000000003 0.15780000000000002 0.88158723458427979 0.14712925723069567 39.885000000000012 13.760000000000002 20.985000000000003 2.3505000000000007 0.12530869661085905 0.011270000000000002 0.020830000000000005
decision_type=2 2 2 2 2 2 2 2 2 2 2 2
left_child=3 2 -2 -1 6 -3 7 8 10 -7 -5 -12
right_child=1 5 -4 4 -6 9 -8 -9 -10 -11 11 -13
leaf_value=-0.0045275764969679028 -0.0077293827384710316 0.026665412004177387 0.024431606701442177 -0.014619831144809723 -0.012247196584939958 0.024243890941143039 -0.015905084622942885 -0.015373369740943114 -0.01487753763794899 0.024623450636863709 -0.01447901053203119 -0.014530903100967408
leaf_weight=39 20 26 21 20 20 35 23 24 20 20 37 20
leaf_count=39 20 26 21 20 20 35 23 24 20 20 37 20
internal_value=0 0.019613 0.00874332 -0.0126728 -0.0146098 0.0251149 -0.014938 -0.0147541 -0.0146009 0.0243819 -0.0145291 -0.0144972
internal_weight=0 122 41 203 164 81 144 121 97 55 77 57
internal_count=325 122 41 203 164 81 144 121 97 55 77 57
is_linear=0
shrinkage=0.05


Tree=6
num_leaves=14
num_cat=0
split_feature=5 27 27 1 23 1 26 29 5 5 9 6 18
split_gain=28.675 4.12502 1.20879 0.1296 0.121242 0.0228506 0.0181003 0.00366515 0.00277917 0.000865978 0.000128527 4.98433e-05 3.8028e-05
threshold=0.051280000000000006 0.018745685611871784 0.017972021108230398 18.635000000000002 0.21875000000000003 22.385000000000002 0.12860445271144202 0.88230550284629994 0.033600000000000012 0.077735000000000012 1.4460000000000002 0.16700000000000001 30.745000000000005
decision_type=2 2 2 2 2 2 2 2 2 2 2 2 2
left_child=2 3 -1 -2 -4 7 9 -6 10 -5 11 -9 -11
right_child=1 -3 4 6 5 -7 -8 8 -10 12 -12 -13 -14
leaf_value=-0.00068064317816779723 0.019203171346868789 -0.0021305929124355318 -0.0097765391071637474 0.023452721312642099 -0.01461762669293777 -0.012234261259436607 0.024916294440627099 -0.013749088194125739 -0.014464808255434038 0.02309840328636624 -0.013931132555007936 -0.01382902673421762 0.023002067208290101
leaf_weight=21 21 20 21 20 23 20 20 39 20 21 20 39 20
leaf_count=21 21 20 21 20 23 20 20 39 20 21 20 39 20
internal_value=0 0.0186323 -0.0120392 0.0227035 -0.0133498 -0.0138159 0.023611 -0.0140402 -0.0139277 0.023183 -0.0138181 -0.0137891 0.0230514
internal_weight=0 122 203 102 182 161 81 141 118 61 98 78 41
internal_count=325 122 203 102 182 161 81 141 118 61 98 78 41
is_linear=0
shrinkage=0.05


Tree=7
num_leaves=14
num_cat=0
split_feature=5 27 29 1 29 26 28 1 5 6 9 18 16
split_gain=25.8792 3.72283 1.11482 0.116964 0.0466435 0.0163355 0.0154528 0.00438027 0.000781544 0.000714007 0.000158719 3.43203e-05 9.59331e-06
threshold=0.051280000000000006 0.018745685611871784 0.88158723458427979 18.635000000000002 0.94250504947925495 0.12860445271144202 0.02352689979807444 21.205000000000002 0.077735000000000012 0.15465000000000004 1.0630000000000002 30.745000000000005 0.019425000000000001
decision_type=2 2 2 2 2 2 2 2 2 2 2 2 2
left_child=2 3 -1 -2 6 8 -4 9 -5 -8 12 -10 -11
right_child=1 -3 4 5 -6 -7 7 -9 11 10 -12 -13 -14
leaf_value=-0.0038389918513787101 0.0182430128966059 -0.0020240627974271778 -0.014786225760524924 0.022280085012316705 -0.011043734777541388 0.023670479729771616 -0.01347070023417473 -0.013983810218897733 0.02194348296948842 -0.013054014205932619 -0.013217800110578538 0.021851963698863983 -0.013100473806262017
leaf_weight=39 21 20 22 20 21 20 20 22 21 25 34 20 20
leaf_count=39 21 20 22 20 21 20 20 22 21 25 34 20 20
internal_value=0 0.0177007 -0.0114372 0.0215683 -0.0132441 0.0224304 -0.0135673 -0.0133456 0.0220238 -0.0132038 -0.0131363 0.0218988 -0.0130747
internal_weight=0 122 203 102 164 81 143 121 61 99 79 41 45
internal_count=325 122 203 102 164 81 143 121 61 99 79 41 45
is_linear=0
shrinkage=0.05


Tree=8
num_leaves=14
num_cat=0
split_feature=27 22 1 1 28 22 20 25 29 23 5 26 23
split_gain=23.5906 5.96743 0.646327 0.0968949 0.0820805 0.0799005 0.0423644 0.0178069 0.00577129 0.000479237 5.49064e-05 4.08606e-05 2.89355e-05
threshold=0.016286911160837376 0.14235000000000003 21.575000000000003 18.635000000000002 0.023085736882889615 0.15315000000000004 0.087285000000000015 0.15375424864419701 0.8858775436881442 0.25115000000000004 0.017915000000000004 0.12342906894487675 0.29745000000000005
decision_type=2 2 2 2 2 2 2 2 2 2 2 2 2
left_child=3 2 4 -1 -2 -5 -6 -8 -9 -10 -11 -7 -12
right_child=1 -3 -4 5 6 11 7 8 9 10 12 -13 -14
leaf_value=0.017884778156876564 -0.015866827151992106 0.013638848926012331 -0.00547272236469914 0.024504515677690505 -0.010514096489974431 0.020747833102941513 -0.014306821674108506 -0.013453195281326772 -0.012700234681367877 -0.012511569671332837 -0.012376141160726549 0.020837545462630013 -0.012456828691065312
leaf_weight=20 22 26 34 20 21 30 20 20 25 20 25 22 20
leaf_count=20 22 26 34 20 21 30 20 20 25 20 25 22 20
internal_value=0 -0.00893908 -0.011775 0.0209636 -0.0130135 0.0218188 -0.0125978 -0.0129344 -0.0126849 -0.0125142 -0.0124426 0.0207858 -0.012412
internal_weight=0 233 207 92 173 72 151 130 110 90 65 52 45
internal_count=325 233 207 92 173 72 151 130 110 90 65 52 45
is_linear=0
shrinkage=0.05


Tree=9
num_leaves=13
num_cat=0
split_feature=5 18 28 29 11 29 28 1 23 25 9 16
split_gain=21.2387 2.26253 3.51036 0.951813 0.0715922 0.0410418 0.0144902 0.00745752 0.000876336 0.000642651 0.000120136 1.16076e-05
threshold=0.051280000000000006 25.540000000000003 0.020227457793311674 0.88158723458427979 39.885000000000012 0.94250504947925495 0.02352689979807444 21.205000000000002 0.25600000000000006 0.15241385100369792 1.2315000000000003 0.019705000000000004
decision_type=2 2 2 2 2 2 2 2 2 2 2 2
left_child=3 2 -2 -1 -3 6 -5 8 -8 -6 11 -10
right_child=1 4 -4 5 9 -7 7 -9 10 -11 -12 -13
leaf_value=-0.0033386662220343567 0.020744232478595914 0.023043434952314087 -0.0085251169651746755 -0.01351255469701507 0.019730204045772554 -0.0099650160542556227 -0.012175446031270205 -0.012950247424569997 -0.011781926405045294 0.020085499659180644 -0.011945566423237325 -0.011830071537267596
leaf_weight=39 21 26 20 22 35 21 27 22 31 20 20 21
leaf_count=39 21 26 20 22 35 21 27 22 31 20 20 21
internal_value=0 0.0160371 0.0064665 -0.0103595 0.0208814 -0.0120291 -0.0123322 -0.0121176 -0.0119325 0.0198594 -0.0118414 -0.0118014
internal_weight=0 122 41 203 81 164 143 121 99 55 72 52
internal_count=325 122 41 203 81 164 143 121 99 55 72 52
is_linear=0
shrinkage=0.05


Tree=10
num_leaves=14
num_cat=0
split_feature=22 11 26 1 5 27 23 29 19 1 29 28 7
split_gain=20.4323 2.88755 0.370402 0.343426 0.0727279 0.0500829 0.0364681 0.0339868 0.00101418 0.000725567 0.000293115 3.97424e-05 3.39878e-05
threshold=0.14235000000000003 36.405000000000008 0.13187263182260292 21.575000000000003 0.041060000000000006 0.015657648070115965 0.32000000000000001 0.88158723458427979 0.11365000000000001 19.795000000000005 0.92580253776176691 0.017368828360213157 0.063275000000000012
decision_type=2 2 2 2 2 2 2 2 2 2 2 2 2
left_child=1 3 5 4 6 9 7 -1 -9 -2 12 -11 -10
right_child=2 -3 -4 -5 -6 -7 -8 8 10 11 -12 -13 -14
leaf_value=-0.013599295243620874 0.019075551770982288 0.0089950812235474586 0.011949374303221703 -0.0055974583786267511 -0.014599937908351422 0.021714024394750595 -0.0094578282109328699 -0.011565478165682994 -0.011147656465570132 0.018762180209159852 -0.011407655738294125 0.018663696572184564 -0.011230593139217013
leaf_weight=20 21 20 20 26 20 20 21 38 30 21 20 20 21
leaf_count=20 21 20 20 26 20 20 21 38 30 21 20 20 21
internal_value=0 -0.00910252 0.0180503 -0.0109492 -0.0117677 0.0195384 -0.0113901 -0.0117046 -0.011357 0.0188366 -0.0112454 0.0187141 -0.0111818
internal_weight=0 216 102 196 170 82 150 129 109 62 71 41 51
internal_count=318 216 102 196 170 82 150 129 109 62 71 41 51
is_linear=0
shrinkage=0.05


Tree=11
num_leaves=14
num_cat=0
split_feature=22 11 26 1 22 27 9 29 11 1 20 27 0
split_gain=18.4402 2.60602 0.334287 0.309942 0.0549713 0.0451999 0.0399995 0.0112384 0.00181136 0.000654824 0.00047861 9.31995e-05 5.69312e-05
threshold=0.14235000000000003 36.405000000000008 0.13187263182260292 21.575000000000003 0.099270000000000011 0.015657648070115965 0.66225000000000012 0.88230550284629994 22.995000000000001 19.795000000000005 0.095305000000000015 0.024394450634085067 19.010000000000002
decision_type=2 2 2 2 2 2 2 2 2 2 2 2 2
left_child=1 3 5 4 6 9 -1 -8 10 -2 -9 -12 -11
right_child=2 -3 -4 -5 -6 -7 7 8 -10 12 11 -13 -14
leaf_value=-0.0087441478456769667 0.018121774068900517 0.0085453274101018918 0.011351905614137651 -0.005317585743390597 -0.013083216644102528 0.020628323554992677 -0.012192680090665818 -0.010970796309411527 -0.011249822693375442 0.017720933684280942 -0.010627889176530222 -0.010764312282914208 0.017838806137442591
leaf_weight=21 21 20 20 26 31 20 20 20 26 21 31 21 20
leaf_count=21 21 20 20 26 31 20 20 20 26 21 31 21 20
internal_value=0 -0.0086474 0.0171478 -0.0104018 -0.0111793 0.0185615 -0.0107547 -0.0111125 -0.0108921 0.0178947 -0.0107629 -0.010683 0.0177784
internal_weight=0 216 102 196 170 82 139 118 98 62 72 52 41
internal_count=318 216 102 196 170 82 139 118 98 62 72 52 41
is_linear=0
shrinkage=0.05


Tree=12
num_leaves=14
num_cat=0
split_feature=27 22 1 0 26 20 1 29 27 17 26 0 11
split_gain=16.9204 4.07135 0.415869 0.135764 0.0492291 0.0345358 0.0302509 0.0222066 0.0200041 0.00715685 0.000243066 0.000110443 1.43508e-05
threshold=0.016286911160837376 0.14235000000000003 21.575000000000003 14.315000000000001 0.13053705115498973 0.087285000000000015 23.850000000000005 0.88158723458427979 0.01257771551200384 0.0046990000000000009 0.14312439913693403 12.840000000000002 17.550000000000001
decision_type=2 2 2 2 2 2 2 2 2 2 2 2 2
left_child=4 2 3 5 6 -2 8 -7 -1 10 11 12 -9
right_child=1 -3 -4 -5 -6 7 -8 9 -10 -11 -12 -13 -14
leaf_value=0.017242095691542472 -0.0084213281671206165 0.012722176448865372 -0.0042574186144130567 -0.01459056610862414 0.019848741307145076 -0.012095187994695847 0.018741103485226632 -0.010160427168011667 0.015213855952024461 -0.011182672977447509 -0.010257221211989721 -0.009987231753766538 -0.010102515797252241
leaf_weight=31 21 22 28 21 21 21 20 20 20 20 30 20 23
leaf_count=31 21 22 28 21 21 21 20 20 20 20 30 20 23
internal_value=0 -0.00771349 -0.00991734 -0.0108178 0.017722 -0.0103066 0.017093 -0.0106021 0.0164467 -0.0103246 -0.0101401 -0.0100843 -0.0101295
internal_weight=0 226 204 176 92 155 71 134 51 113 93 63 43
internal_count=318 226 204 176 92 155 71 134 51 113 93 63 43
is_linear=0
shrinkage=0.05


Tree=13
num_leaves=13
num_cat=0
split_feature=27 22 1 0 22 20 29 15 1 11 7 28
split_gain=15.2707 3.6744 0.375322 0.122527 0.0439257 0.0311685 0.0200415 0.00617746 0.00377397 0.000173848 0.000172004 8.58517e-05
threshold=0.016286911160837376 0.14235000000000003 21.575000000000003 14.315000000000001 0.15315000000000004 0.087285000000000015 0.88158723458427979 0.013300000000000001 18.735000000000003 15.350000000000003 0.061135000000000002 0.025004809542131596
decision_type=2 2 2 2 2 2 2 2 2 2 2 2
left_child=4 2 3 5 -1 -2 -7 9 -6 -8 -10 -11
right_child=1 -3 -4 -5 8 6 7 -9 10 11 -12 -13
leaf_value=0.018908877596259116 -0.0080002617977914369 0.012086067687381399 -0.0040445479697414806 -0.013861037613380523 0.016843822151422501 -0.011490428696076076 -0.009720448823645712 -0.010560255159031261 0.016146108295236314 -0.0094914896413683895 0.015960776421331591 -0.0096189054159017719
leaf_weight=20 21 22 28 21 20 21 32 22 21 20 31 39
leaf_count=20 21 22 28 21 20 21 32 22 21 20 31 39
internal_value=0 -0.00732782 -0.00942147 -0.0102769 0.0168359 -0.0097913 -0.010072 -0.00980838 0.0162601 -0.00962661 0.0160356 -0.00957571
internal_weight=0 226 204 176 92 155 134 113 72 91 52 59
internal_count=318 226 204 176 92 155 134 113 72 91 52 59
is_linear=0
shrinkage=0.05


Tree=14
num_leaves=14
num_cat=0
split_feature=27 22 1 0 26 23 1 29 0 17 25 11 16
split_gain=13.7818 3.31614 0.338728 0.11058 0.0424407 0.0295953 0.027488 0.0195065 0.0182562 0.00414465 0.000360822 0.000117628 5.45165e-05
threshold=0.016286911160837376 0.14235000000000003 21.575000000000003 14.315000000000001 0.13053705115498973 0.22560000000000002 23.850000000000005 0.88158723458427979 16.925000000000004 0.0046290000000000012 0.15737675831355355 18.900000000000002 0.018685000000000004
decision_type=2 2 2 2 2 2 2 2 2 2 2 2 2
left_child=4 2 3 5 6 -2 8 -7 -1 10 11 12 -9
right_child=1 -3 -4 -5 -6 7 -8 9 -10 -11 -12 -13 -14
leaf_value=0.013616250306367875 -0.0075564817303702949 0.011481764506209982 -0.0038423202931880951 -0.013167985883497059 0.017968775899637312 -0.010900517844635508 0.016981118768453599 -0.0090984009578824049 0.015553849887463354 -0.0099523550271987931 -0.0093337282199751261 -0.0090245150029659282 -0.0092151448130607608
leaf_weight=20 21 22 28 21 21 23 20 20 31 20 22 29 20
leaf_count=20 21 22 28 21 21 23 20 20 31 20 22 29 20
internal_value=0 -0.00696143 -0.0089504 -0.00976305 0.0159941 -0.00930174 0.0154101 -0.00957525 0.014794 -0.00930064 -0.00915741 -0.00910119 -0.00915677
internal_weight=0 226 204 176 92 155 71 134 51 111 91 69 40
internal_count=318 226 204 176 92 155 71 134 51 111 91 69 40
is_linear=0
shrinkage=0.05


Tree=15
num_leaves=13
num_cat=0
split_feature=27 5 1 8 16 5 29 27 24 29 15 14
split_gain=12.9336 1.87096 0.193646 0.107571 0.0937407 0.0426056 0.00955903 0.00792627 0.00374557 0.000362178 0.000183202 0.000152254
threshold=0.016286911160837376 0.055920000000000004 21.575000000000003 0.40470000000000006 0.014810000000000002 0.03512500000000001 0.88496211612116549 0.012859330041938739 0.068830000000000016 0.93025910208907325 0.010375000000000002 0.016805000000000004
decision_type=2 2 2 2 2 2 2 2 2 2 2 2
left_child=3 2 5 -1 -5 6 -2 -6 -8 10 11 -10
right_child=1 -3 -4 4 7 -7 8 -9 9 -11 -12 -13
leaf_value=0.018209123089909556 -0.010093992240726948 0.0058597962856292733 -0.0051500350935384633 0.01114708110690117 0.014676382332234769 -0.011457977613264864 -0.0094652846766014893 0.015892590511412848 -0.0086790038755646462 -0.0089510418847203264 -0.0085819023847579969 -0.008852086029946804
leaf_weight=20 20 25 32 20 37 22 24 21 27 20 20 24
leaf_count=20 20 25 32 20 37 22 24 21 27 20 20 24
internal_value=0 -0.00699472 -0.00869505 0.0149377 0.0140989 -0.00941761 -0.0090851 0.0151167 -0.00890964 -0.0087631 -0.00871016 -0.00876045
internal_weight=0 214 189 98 78 157 135 58 115 91 71 51
internal_count=312 214 189 98 78 157 135 58 115 91 71 51
is_linear=0
shrinkage=0.05


Tree=16
num_leaves=13
num_cat=0
split_feature=27 22 1 8 16 5 29 22 19 22 5 19
split_gain=11.6725 2.24712 0.199936 0.0970828 0.084601 0.0662832 0.0110886 0.00962857 0.0051921 0.000438696 0.000242285 0.000133376
threshold=0.016286911160837376 0.13605000000000003 21.575000000000003 0.40470000000000006 0.014810000000000002 0.037590000000000005 0.88360078871802805 0.16705 0.10375000000000002 0.048005000000000006 0.029425000000000003 0.12535000000000002
decision_type=2 2 2 2 2 2 2 2 2 2 2 2
left_child=3 2 5 -1 -5 6 -2 -6 -8 -10 11 -11
right_child=1 -3 -4 4 7 -7 8 -9 9 10 -12 -13
leaf_value=0.017298667207360268 -0.0097495911642909057 0.008887652698017303 -0.0047253334196284413 0.010589727014303208 0.015248898267745973 -0.011671995371580125 -0.0091920432945092525 0.013893527380729976 -0.0085356542840600014 -0.0084063324663374156 -0.0081231154873967187 -0.008255436574108899
leaf_weight=20 20 21 32 20 20 21 21 38 20 27 20 32
leaf_count=20 20 21 32 20 20 21 21 38 20 27 20 32
internal_value=0 -0.00664499 -0.00833507 0.0141908 0.0133939 -0.00905253 -0.00865961 0.0143609 -0.00847794 -0.00832647 -0.00827351 -0.00832449
internal_weight=0 214 193 98 78 161 140 58 120 99 79 59
internal_count=312 214 193 98 78 161 140 58 120 99 79 59
is_linear=0
shrinkage=0.05


Tree=17
num_leaves=13
num_cat=0
split_feature=27 22 1 1 22 5 29 9 6 6 8 19
split_gain=10.5345 2.02803 0.180442 0.0968922 0.128905 0.0598205 0.0100075 0.00477947 0.000527673 0.000472395 0.000142438 9.16745e-05
threshold=0.016286911160837376 0.13605000000000003 21.575000000000003 18.825000000000003 0.15555000000000002 0.037590000000000005 0.88360078871802805 1.5670000000000002 0.15185000000000004 0.18735000000000004 0.23480000000000004 0.12755000000000002
decision_type=2 2 2 2 2 2 2 2 2 2 2 2
left_child=3 2 5 -1 -5 6 -2 8 -8 -6 11 -10
right_child=1 -3 -4 4 9 -7 7 -9 10 -11 -12 -13
leaf_value=0.010470785094158989 -0.0092621115967631337 0.0084432702334154217 -0.0044890667079016565 0.01775599170476198 0.013278964800494059 -0.011088395438023977 -0.008138135559856893 -0.0087391833819094166 -0.0079926214739680281 0.012980564414627022 -0.0077826397159160721 -0.0078412324935197824
leaf_weight=21 20 21 32 20 21 21 20 21 20 36 39 20
leaf_count=21 20 21 32 20 21 21 20 21 20 36 39 20
internal_value=0 -0.00631274 -0.00791831 0.0134813 0.0143023 -0.0085999 -0.00822663 -0.00805405 -0.00790871 0.0130905 -0.00785063 -0.00791693
internal_weight=0 214 193 98 77 161 140 120 99 57 79 40
internal_count=312 214 193 98 77 161 140 120 99 57 79 40
is_linear=0
shrinkage=0.05


Tree=18
num_leaves=14
num_cat=0
split_feature=27 22 7 1 5 6 2 5 1 2 23 12 23
split_gain=9.50736 1.83029 0.17388 0.0874452 0.116602 0.042415 0.0728768 0.0576541 0.0253413 0.00182736 0.000629613 0.000425614 8.2246e-05
threshold=0.016286911160837376 0.13605000000000003 0.056320000000000002 18.825000000000003 0.074855000000000019 0.15995000000000001 0.090385000000000007 0.037590000000000005 20.805000000000003 0.083905000000000021 0.30660000000000004 0.0060370000000000016 0.28150000000000003
decision_type=2 2 2 2 2 2 2 2 2 2 2 2 2
left_child=3 2 -2 -1 -5 6 -4 8 9 -7 -6 -11 -13
right_child=1 -3 5 4 10 7 -8 -9 -10 11 -12 12 -14
leaf_value=0.0099472456744739007 -0.0031084799766540531 0.0080211068547907331 -0.008511989414691926 0.016871928088366985 0.012622672677040101 -0.0080772528052330018 -0.0044626353308558466 -0.010892192558163689 -0.009631632231175899 -0.0077128716490485463 0.012287784880027176 -0.007384064435958862 -0.0075200988352298742
leaf_weight=21 20 21 25 20 25 20 20 21 20 22 32 25 20
leaf_count=21 20 21 25 20 25 20 20 21 20 22 32 25 20
internal_value=0 -0.0059971 -0.0075224 0.0128072 0.0135872 -0.00803268 -0.00671228 -0.00849688 -0.00802677 -0.00765784 0.0124347 -0.00753264 -0.00744452
internal_weight=0 214 193 98 77 173 45 128 107 87 57 67 45
internal_count=312 214 193 98 77 173 45 128 107 87 57 67 45
is_linear=0
shrinkage=0.05


Tree=19
num_leaves=13
num_cat=0
split_feature=27 22 1 8 6 0 10 1 3 19 4 0
split_gain=8.58039 1.65184 0.16298 0.084321 0.079358 0.0503229 0.00681646 0.00547381 0.00195247 0.000946583 0.000225694 0.00020999
threshold=0.016286911160837376 0.13605000000000003 21.575000000000003 0.40470000000000006 0.17745000000000002 14.080000000000002 2.5885000000000002 20.535000000000004 0.053970000000000011 0.14275000000000002 0.044535000000000012 12.305000000000001
decision_type=2 2 2 2 2 2 2 2 2 2 2 2
left_child=3 2 5 -1 -5 6 8 -6 -2 10 11 -10
right_child=1 -3 -4 4 7 -7 -8 -9 9 -11 -12 -13
leaf_value=0.015063240341842175 -0.007638593695380471 0.0076200511483919056 -0.0038871872238814831 0.0087082659080624583 0.013005461366403671 -0.010141162052750589 -0.0082696630873463368 0.01199477041089857 -0.0072713627395304768 -0.0074875263497233393 -0.0069725566854079565 -0.0070475070923566828
leaf_weight=20 33 21 32 20 21 20 22 37 22 20 24 20
leaf_count=20 33 21 32 20 21 20 22 37 22 20 24 20
internal_value=0 -0.00569724 -0.00714628 0.0121669 0.0114242 -0.00779405 -0.00746112 0.0123607 -0.00731164 -0.00718619 -0.00709487 -0.00716476
internal_weight=0 214 193 98 78 161 141 58 119 86 66 42
internal_count=312 214 193 98 78 161 141 58 119 86 66 42
is_linear=0
shrinkage=0.05


end of trees

feature_importances:
Column_1=26
Column_27=25
Column_29=25
Column_5=22
Column_22=19
Column_23=13
Column_9=11
Column_11=11
Column_0=10
Column_26=10
Column_18=9
Column_16=7
Column_28=7
Column_6=6
Column_19=6
Column_4=4
Column_8=4
Column_20=4
Column_25=4
Column_7=3
Column_10=3
Column_12=3
Column_14=3
Column_17=3
Column_2=2
Column_15=2
Column_3=1
Column_21=1
Column_24=1

parameters:
[boosting: gbdt]
[objective: regression]
[metric: l2,l1]
[tree_learner: serial]
[device_type: cpu]
[data: ]
[valid: ]
[num_iterations: 20]
[learning_rate: 0.05]
[num_leaves: 31]
[num_threads: 0]
[deterministic: 0]
[force_col_wise: 0]
[force_row_wise: 0]
[histogram_pool_size: -1]
[max_depth: -1]
[min_data_in_leaf: 20]
[min_sum_hessian_in_leaf: 0.001]
[bagging_fraction: 0.8]
[pos_bagging_fraction: 1]
[neg_bagging_fraction: 1]
[bagging_freq: 5]
[bagging_seed: 3]
[feature_fraction: 0.9]
[feature_fraction_bynode: 1]
[feature_fraction_seed: 2]
[extra_trees: 0]
[extra_seed: 6]
[early_stopping_round: 0]
[first_metric_only: 0]
[max_delta_step: 0]
[lambda_l1: 0]
[lambda_l2: 0]
[linear_lambda: 0]
[min_gain_to_split: 0]
[drop_rate: 0.1]
[max_drop: 50]
[skip_drop: 0.5]
[xgboost_dart_mode: 0]
[uniform_drop: 0]
[drop_seed: 4]
[top_rate: 0.2]
[other_rate: 0.1]
[min_data_per_group: 100]
[max_cat_threshold: 32]
[cat_l2: 10]
[cat_smooth: 10]
[max_cat_to_onehot: 4]
[top_k: 20]
[monotone_constraints: ]
[monotone_constraints_method: basic]
[monotone_penalty: 0]
[feature_contri: ]
[forcedsplits_filename: ]
[refit_decay_rate: 0.9]
[cegb_tradeoff: 1]
[cegb_penalty_split: 0]
[cegb_penalty_feature_lazy: ]
[cegb_penalty_feature_coupled: ]
[path_smooth: 0]
[interaction_constraints: ]
[verbosity: 0]
[saved_feature_importance_type: 0]
[linear_tree: 0]
[max_bin: 255]
[max_bin_by_feature: ]
[min_data_in_bin: 3]
[bin_construct_sample_cnt: 200000]
[data_random_seed: 1]
[is_enable_sparse: 1]
[enable_bundle: 1]
[use_missing: 1]
[zero_as_missing: 0]
[feature_pre_filter: 1]
[pre_partition: 0]
[two_round: 0]
[header: 0]
[label_column: ]
[weight_column: ]
[group_column: ]
[ignore_column: ]
[categorical_feature: ]
[forcedbins_filename: ]
[precise_float_parser: 0]
[objective_seed: 5]
[num_class: 1]
[is_unbalance: 0]
[scale_pos_weight: 1]
[sigmoid: 1]
[boost_from_average: 1]
[reg_sqrt: 0]
[alpha: 0.9]
[fair_c: 1]
[poisson_max_delta_step: 0.7]
[tweedie_variance_power: 1.5]
[lambdarank_truncation_level: 30]
[lambdarank_norm: 1]
[label_gain: ]
[eval_at: ]
[multi_error_top_k: 1]
[auc_mu_weights: ]
[num_machines: 1]
[local_listen_port: 12400]
[time_out: 120]
[machine_list_filename: ]
[machines: ]
[gpu_platform_id: -1]
[gpu_device_id: -1]
[gpu_use_dp: 0]
[num_gpu: 1]

end of parameters

pandas_categorical:null
